<?xml version="1.0"?>
<opencv_storage>
<cascade>
  <stageType>BOOST</stageType>
  <featureType>HAAR</featureType>
  <height>20</height>
  <width>20</width>
  <stageParams>
    <boostType>GAB</boostType>
    <minHitRate>9.9500000476837158e-01</minHitRate>
    <maxFalseAlarm>5.0000000000000000e-01</maxFalseAlarm>
    <weightTrimRate>9.4999999999999996e-01</weightTrimRate>
    <maxDepth>1</maxDepth>
    <maxWeakCount>100</maxWeakCount></stageParams>
  <featureParams>
    <maxCatCount>0</maxCatCount>
    <featSize>1</featSize>
    <mode>BASIC</mode></featureParams>
  <stageNum>20</stageNum>
  <stages>
    <!-- stage 0 -->
    <_>
      <maxWeakCount>3</maxWeakCount>
      <stageThreshold>-1.4562650918960571e+00</stageThreshold>
      <weakClassifiers>
        <_>
          <internalNodes>
            0 -1 0 1.3129889965057373e-01</internalNodes>
          <leafValues>
            -9.6573096513748169e-01 8.7463557720184326e-01</leafValues></_>
        <_>
          <internalNodes>
            0 -1 1 -2.1435499191284180e-01</internalNodes>
          <leafValues>
            7.1376746892929077e-01 -9.3973457813262939e-01</leafValues></_>
        <_>
          <internalNodes>
            0 -1 2 -1.4895649999380112e-02</internalNodes>
          <leafValues>
            7.4182552099227905e-01 -9.1548013687133789e-01</leafValues></_></weakClassifiers></_>
    <!-- stage 1 -->
    <_>
      <maxWeakCount>4</maxWeakCount>
      <stageThreshold>-2.0218060016632080e+00</stageThreshold>
      <weakClassifiers>
        <_>
          <internalNodes>
            0 -1 3 -4.0173649787902832e-01</internalNodes>
          <leafValues>
            8.1896549463272095e-01 -9.2616558074951172e-01</leafValues></_>
        <_>
          <internalNodes>
            0 -1 4 -1.4210069179534912e-01</internalNodes>
          <leafValues>
            7.1124839782714844e-01 -8.9366722106933594e-01</leafValues></_>
        <_>
          <internalNodes>
            0 -1 5 -1.3258880376815796e-01</internalNodes>
          <leafValues>
            6.6233652830123901e-01 -8.7217342853546143e-01</leafValues></_>
        <_>
          <internalNodes>
            0 -1 6 -1.3385180011391640e-02</internalNodes>
          <leafValues>
            5.7755661010742188e-01 -9.1232872009277344e-01</leafValues></_></weakClassifiers></_>
    <!-- stage 2 -->
    <_>
      <maxWeakCount>4</maxWeakCount>
      <stageThreshold>-1.9229869842529297e+00</stageThreshold>
      <weakClassifiers>
        <_>
          <internalNodes>
            0 -1 7 -3.9615678787231445e-01</internalNodes>
          <leafValues>
            7.9207927297592163e-01 -8.9680582284927368e-01</leafValues></_>
        <_>
          <internalNodes>
            0 -1 8 -1.4431619644165039e-01</internalNodes>
          <leafValues>
            6.5674871206283569e-01 -8.7920218706130981e-01</leafValues></_>
        <_>
          <internalNodes>
            0 -1 9 -1.3511579483747482e-02</internalNodes>
          <leafValues>
            5.7559042572975159e-01 -8.8500863313674927e-01</leafValues></_>
        <_>
          <internalNodes>
            0 -1 10 -1.2788370251655579e-01</internalNodes>
          <leafValues>
            6.3486558198928833e-01 -8.2556509971618652e-01</leafValues></_></weakClassifiers></_>
    <!-- stage 3 -->
    <_>
      <maxWeakCount>4</maxWeakCount>
      <stageThreshold>-1.9187920093536377e+00</stageThreshold>
      <weakClassifiers>
        <_>
          <internalNodes>
            0 -1 11 -3.9615678787231445e-01</internalNodes>
          <leafValues>
            7.9207927297592163e-01 -8.9680582284927368e-01</leafValues></_>
        <_>
          <internalNodes>
            0 -1 12 -1.4431619644165039e-01</internalNodes>
          <leafValues>
            6.5674871206283569e-01 -8.7920218706130981e-01</leafValues></_>
        <_>
          <internalNodes>
            0 -1 13 -1.3511579483747482e-02</internalNodes>
          <leafValues>
            5.7559042572975159e-01 -8.8500863313674927e-01</leafValues></_>
        <_>
          <internalNodes>
            0 -1 14 -1.2788370251655579e-01</internalNodes>
          <leafValues>
            6.3486558198928833e-01 -8.2556509971618652e-01</leafValues></_></weakClassifiers></_>
    <!-- stage 4 -->
    <_>
      <maxWeakCount>4</maxWeakCount>
      <stageThreshold>-1.8187920093536377e+00</stageThreshold>
      <weakClassifiers>
        <_>
          <internalNodes>
            0 -1 15 -3.9615678787231445e-01</internalNodes>
          <leafValues>
            7.9207927297592163e-01 -8.9680582284927368e-01</leafValues></_>
        <_>
          <internalNodes>
            0 -1 16 -1.4431619644165039e-01</internalNodes>
          <leafValues>
            6.5674871206283569e-01 -8.7920218706130981e-01</leafValues></_>
        <_>
          <internalNodes>
            0 -1 17 -1.3511579483747482e-02</internalNodes>
          <leafValues>
            5.7559042572975159e-01 -8.8500863313674927e-01</leafValues></_>
        <_>
          <internalNodes>
            0 -1 18 -1.2788370251655579e-01</internalNodes>
          <leafValues>
            6.3486558198928833e-01 -8.2556509971618652e-01</leafValues></_></weakClassifiers></_></stages>
  <features>
    <_>
      <rects>
        <_>
          0 3 20 14 -1.</_>
        <_>
          0 10 20 7 2.</_></rects>
      <tilted>0</tilted></_>
    <_>
      <rects>
        <_>
          0 5 20 10 -1.</_>
        <_>
          0 10 20 5 2.</_></rects>
      <tilted>0</tilted></_>
    <_>
      <rects>
        <_>
          0 7 20 6 -1.</_>
        <_>
          0 9 20 2 3.</_></rects>
      <tilted>0</tilted></_>
    <_>
      <rects>
        <_>
          0 0 20 8 -1.</_>
        <_>
          0 4 20 4 2.</_></rects>
      <tilted>0</tilted></_>
    <_>
      <rects>
        <_>
          0 2 20 4 -1.</_>
        <_>
          0 4 20 2 2.</_></rects>
      <tilted>0</tilted></_>
    <_>
      <rects>
        <_>
          0 4 20 2 -1.</_>
        <_>
          0 5 20 1 2.</_></rects>
      <tilted>0</tilted></_>
    <_>
      <rects>
        <_>
          0 6 20 2 -1.</_>
        <_>
          0 7 20 1 2.</_></rects>
      <tilted>0</tilted></_>
    <_>
      <rects>
        <_>
          0 8 20 2 -1.</_>
        <_>
          0 9 20 1 2.</_></rects>
      <tilted>0</tilted></_>
    <_>
      <rects>
        <_>
          0 10 20 2 -1.</_>
        <_>
          0 11 20 1 2.</_></rects>
      <tilted>0</tilted></_>
    <_>
      <rects>
        <_>
          0 12 20 2 -1.</_>
        <_>
          0 13 20 1 2.</_></rects>
      <tilted>0</tilted></_>
    <_>
      <rects>
        <_>
          0 14 20 2 -1.</_>
        <_>
          0 15 20 1 2.</_></rects>
      <tilted>0</tilted></_>
    <_>
      <rects>
        <_>
          0 16 20 2 -1.</_>
        <_>
          0 17 20 1 2.</_></rects>
      <tilted>0</tilted></_>
    <_>
      <rects>
        <_>
          0 18 20 2 -1.</_>
        <_>
          0 19 20 1 2.</_></rects>
      <tilted>0</tilted></_>
    <_>
      <rects>
        <_>
          2 0 16 20 -1.</_>
        <_>
          2 0 8 10 2.</_>
        <_>
          10 10 8 10 2.</_></rects>
      <tilted>0</tilted></_>
    <_>
      <rects>
        <_>
          4 0 12 20 -1.</_>
        <_>
          4 0 6 10 2.</_>
        <_>
          10 10 6 10 2.</_></rects>
      <tilted>0</tilted></_>
    <_>
      <rects>
        <_>
          6 0 8 20 -1.</_>
        <_>
          6 0 4 10 2.</_>
        <_>
          10 10 4 10 2.</_></rects>
      <tilted>0</tilted></_>
    <_>
      <rects>
        <_>
          8 0 4 20 -1.</_>
        <_>
          8 0 2 10 2.</_>
        <_>
          10 10 2 10 2.</_></rects>
      <tilted>0</tilted></_>
    <_>
      <rects>
        <_>
          9 0 2 20 -1.</_>
        <_>
          9 0 1 10 2.</_>
        <_>
          10 10 1 10 2.</_></rects>
      <tilted>0</tilted></_>
    <_>
      <rects>
        <_>
          10 0 10 10 -1.</_>
        <_>
          10 0 5 5 2.</_>
        <_>
          15 5 5 5 2.</_></rects>
      <tilted>0</tilted></_></features></cascade>
</opencv_storage>
